//Numpy array shape [64]
//Min -36.911914825439
//Max 51.052700042725
//Number of zeros 0

#ifndef B6_H_
#define B6_H_

#ifndef __SYNTHESIS__
batch_normalization_bias_t b6[64];
#else
batch_normalization_bias_t b6[64] = {-9.5670738220, -7.2150735855, -9.9831285477, -11.8957595825, -19.4553794861, -6.1212391853, 18.9647121429, 23.3180847168, -9.6135358810, -4.1379485130, -23.0300655365, -7.7577166557, 12.6201658249, -3.9455633163, 17.2991828918, -3.3031363487, -8.9637956619, -11.9833402634, 51.0527000427, 6.0767269135, -16.0296821594, 11.5186138153, 13.1837024689, 6.8656659126, 3.2558138371, 17.4421920776, -23.7940635681, 2.4042129517, 6.3848180771, 26.1539325714, 6.1872324944, -0.2371944785, 8.0978202820, 12.6203470230, 1.6593754292, -5.0915665627, -6.2132005692, 36.3601150513, -8.0547018051, -5.9154963493, 9.8934297562, -30.5890979767, -14.0308990479, -6.1869916916, -1.6789228916, -5.0872683525, -0.5945236087, -19.2438297272, 4.0315451622, 21.5503330231, -8.2805738449, 0.1101329848, -4.7677803040, -0.7368807197, -11.1696949005, -36.9119148254, 2.8883700371, -11.8835000992, 6.5822639465, 19.5758228302, 2.9139127731, -8.3201427460, 13.6918163300, 49.3072395325};
#endif

#endif
