//Numpy array shape [64]
//Min -34.040069580078
//Max 0.197359934449
//Number of zeros 0

#ifndef B7_H_
#define B7_H_

#ifndef __SYNTHESIS__
batch_normalization_bias_t b7[64];
#else
batch_normalization_bias_t b7[64] = {0.063961155713, -0.090663455427, -0.091878093779, -0.145227134228, -29.732284545898, 0.018874224275, 0.197359934449, -0.185248553753, -0.009701670147, 0.102183051407, -34.040069580078, -0.174885556102, -29.843259811401, 0.115544937551, 0.073409877717, 0.097051076591, 0.163686260581, 0.078423716128, -33.897594451904, -0.029414568096, 0.125491485000, -31.009941101074, -0.074168652296, 0.021499302238, -0.102261044085, 0.026838235557, -29.160297393799, -33.517963409424, 0.086354494095, -0.016906682402, -0.024449767545, -0.012610846199, -0.095096699893, -29.826627731323, -0.090177714825, 0.120616748929, -32.394142150879, 0.034271772951, -0.095211058855, 0.002533758990, -0.059349924326, -0.071526274085, -32.646579742432, 0.086730808020, -0.080283291638, -0.001597521012, 0.094977669418, -32.516681671143, -30.127044677734, 0.100688681006, 0.024585383013, 0.101313248277, -0.003155720187, -0.129929095507, -0.061218474060, 0.100561745465, -0.061138451099, -0.011696982197, -0.020874772221, -0.082358412445, -0.015264105052, -0.052710667253, -31.779083251953, -32.185516357422};
#endif

#endif
