//Numpy array shape [16, 6]
//Min -1.656250000000
//Max 1.437500000000
//Number of zeros 33

#ifndef W16_H_
#define W16_H_

#ifndef __SYNTHESIS__
weight16_t w16[96];
#else
weight16_t w16[96] = {-0.18750, 1.06250, -0.43750, -0.59375, 1.31250, 1.43750, 1.31250, 0.18750, -1.65625, -0.43750, 0.03125, -0.12500, -0.28125, 0.46875, 0.09375, 0.25000, 0.03125, -0.75000, 0.78125, 0.71875, 0.15625, -0.68750, -0.40625, -0.03125, 0.43750, 0.09375, 0.00000, -0.96875, 0.03125, -0.50000, -0.03125, 0.90625, 0.71875, 0.15625, 0.28125, 0.21875, -0.21875, 0.25000, -0.21875, -0.90625, -0.59375, -0.06250, -0.68750, 0.62500, -0.09375, 0.09375, -0.81250, 0.90625, 0.00000, 0.00000, 0.00000, 0.00000, 0.00000, 0.00000, 0.00000, 0.00000, 0.00000, 0.00000, 0.00000, 0.00000, 0.00000, 0.00000, 0.00000, 0.00000, 0.00000, 0.00000, 0.00000, 0.00000, 0.00000, 0.00000, 0.00000, 0.00000, 0.00000, 0.00000, 0.00000, 0.00000, 0.00000, 0.00000, 0.00000, 0.00000, 0.03125, -0.12500, -0.31250, -0.06250, 1.21875, -0.25000, 0.09375, 0.03125, -0.12500, -0.50000, 0.03125, 0.15625, 1.21875, -0.15625, -0.03125, -0.15625};
#endif

#endif
